<?xml version="1.0"?>
<opencv_storage>
<cascade>
  <stageType>BOOST</stageType>
  <featureType>HAAR</featureType>
  <height>20</height>
  <width>20</width>
  <stageParams>
    <boostType>GAB</boostType>
    <minHitRate>9.9900001287460327e-01</minHitRate>
    <maxFalseAlarm>5.0000000745058060e-02</maxFalseAlarm>
    <weightTrimRate>9.4999999999999996e-01</weightTrimRate>
    <maxDepth>1</maxDepth>
    <maxWeakCount>100</maxWeakCount></stageParams>
  <featureParams>
    <maxCatCount>0</maxCatCount>
    <featSize>1</featSize>
    <mode>ALL</mode></featureParams>
  <stageNum>3</stageNum>
  <stages>
    <!-- stage 0 -->
    <_>
      <maxWeakCount>7</maxWeakCount>
      <stageThreshold>-7.0116436481475830e-01</stageThreshold>
      <weakClassifiers>
        <_>
          <internalNodes>
            0 -1 11 1.3938125222921371e-02</internalNodes>
          <leafValues>
            -6.6486483812332153e-01 8.2921350002288818e-01</leafValues></_>
        <_>
          <internalNodes>
            0 -1 18 -1.2944772839546204e-02</internalNodes>
          <leafValues>
            6.5999239683151245e-01 -7.9176980257034302e-01</leafValues></_>
        <_>
          <internalNodes>
            0 -1 6 3.8981870748102665e-03</internalNodes>
          <leafValues>
            -5.7281982898712158e-01 9.2200529575347900e-01</leafValues></_>
        <_>
          <internalNodes>
            0 -1 3 1.7993506044149399e-02</internalNodes>
          <leafValues>
            -9.4875448942184448e-01 5.1428228616714478e-01</leafValues></_>
        <_>
          <internalNodes>
            0 -1 0 -3.8065962144173682e-05</internalNodes>
          <leafValues>
            -1. 4.2155963182449341e-01</leafValues></_>
        <_>
          <internalNodes>
            0 -1 14 1.0860983282327652e-02</internalNodes>
          <leafValues>
            -5.7197809219360352e-01 9.7467148303985596e-01</leafValues></_>
        <_>
          <internalNodes>
            0 -1 10 -1.8232626840472221e-02</internalNodes>
          <leafValues>
            9.9824488162994385e-01 -5.8222323656082153e-01</leafValues></_></weakClassifiers></_>
    <!-- stage 1 -->
    <_>
      <maxWeakCount>8</maxWeakCount>
      <stageThreshold>-2.7787664532661438e-01</stageThreshold>
      <weakClassifiers>
        <_>
          <internalNodes>
            0 -1 12 2.6767980307340622e-03</internalNodes>
          <leafValues>
            -6.3194441795349121e-01 8.5849058628082275e-01</leafValues></_>
        <_>
          <internalNodes>
            0 -1 7 4.4984538108110428e-03</internalNodes>
          <leafValues>
            -5.1497596502304077e-01 8.6945945024490356e-01</leafValues></_>
        <_>
          <internalNodes>
            0 -1 2 -6.3141570426523685e-03</internalNodes>
          <leafValues>
            5.5594265460968018e-01 -9.4782859086990356e-01</leafValues></_>
        <_>
          <internalNodes>
            0 -1 0 2.5033372367033735e-05</internalNodes>
          <leafValues>
            3.9532819390296936e-01 -9.6001368761062622e-01</leafValues></_>
        <_>
          <internalNodes>
            0 -1 16 9.3642380088567734e-03</internalNodes>
          <leafValues>
            -9.1289889812469482e-01 4.9979496002197266e-01</leafValues></_>
        <_>
          <internalNodes>
            0 -1 13 -2.4612877517938614e-02</internalNodes>
          <leafValues>
            9.9281549453735352e-01 -4.8558592796325684e-01</leafValues></_>
        <_>
          <internalNodes>
            0 -1 17 6.1424076557159424e-03</internalNodes>
          <leafValues>
            -5.9281718730926514e-01 9.7276306152343750e-01</leafValues></_>
        <_>
          <internalNodes>
            0 -1 8 3.2820723950862885e-02</internalNodes>
          <leafValues>
            5.5000931024551392e-01 -9.8768299818038940e-01</leafValues></_></weakClassifiers></_>
    <!-- stage 2 -->
    <_>
      <maxWeakCount>5</maxWeakCount>
      <stageThreshold>3.4014683961868286e-01</stageThreshold>
      <weakClassifiers>
        <_>
          <internalNodes>
            0 -1 5 -6.0074264183640480e-03</internalNodes>
          <leafValues>
            9.7005987167358398e-01 -4.8648649454116821e-01</leafValues></_>
        <_>
          <internalNodes>
            0 -1 9 1.6912393271923065e-02</internalNodes>
          <leafValues>
            5.4523313045501709e-01 -9.7377783060073853e-01</leafValues></_>
        <_>
          <internalNodes>
            0 -1 1 -5.6710094213485718e-05</internalNodes>
          <leafValues>
            -9.8915839195251465e-01 3.8550367951393127e-01</leafValues></_>
        <_>
          <internalNodes>
            0 -1 15 -6.3774455338716507e-03</internalNodes>
          <leafValues>
            9.5700180530548096e-01 -5.3205990791320801e-01</leafValues></_>
        <_>
          <internalNodes>
            0 -1 4 -4.2399052530527115e-02</internalNodes>
          <leafValues>
            -9.9371224641799927e-01 4.9042099714279175e-01</leafValues></_></weakClassifiers></_></stages>
  <features>
    <_>
      <rects>
        <_>
          0 0 2 2 -1.</_>
        <_>
          0 1 2 1 2.</_></rects>
      <tilted>0</tilted></_>
    <_>
      <rects>
        <_>
          0 0 3 4 -1.</_>
        <_>
          0 2 3 2 2.</_></rects>
      <tilted>0</tilted></_>
    <_>
      <rects>
        <_>
          0 14 8 6 -1.</_>
        <_>
          0 17 8 3 2.</_></rects>
      <tilted>0</tilted></_>
    <_>
      <rects>
        <_>
          0 15 20 5 -1.</_>
        <_>
          5 15 10 5 2.</_></rects>
      <tilted>0</tilted></_>
    <_>
      <rects>
        <_>
          2 4 16 12 -1.</_>
        <_>
          2 10 16 6 2.</_></rects>
      <tilted>0</tilted></_>
    <_>
      <rects>
        <_>
          5 10 1 3 -1.</_>
        <_>
          5 11 1 1 3.</_></rects>
      <tilted>0</tilted></_>
    <_>
      <rects>
        <_>
          6 8 3 1 -1.</_>
        <_>
          7 8 1 1 3.</_></rects>
      <tilted>0</tilted></_>
    <_>
      <rects>
        <_>
          7 6 3 1 -1.</_>
        <_>
          8 6 1 1 3.</_></rects>
      <tilted>0</tilted></_>
    <_>
      <rects>
        <_>
          8 2 9 3 -1.</_>
        <_>
          11 5 3 3 3.</_></rects>
      <tilted>1</tilted></_>
    <_>
      <rects>
        <_>
          8 4 5 12 -1.</_>
        <_>
          8 10 5 6 2.</_></rects>
      <tilted>0</tilted></_>
    <_>
      <rects>
        <_>
          8 13 3 6 -1.</_>
        <_>
          9 13 1 6 3.</_></rects>
      <tilted>0</tilted></_>
    <_>
      <rects>
        <_>
          9 7 3 3 -1.</_>
        <_>
          10 8 1 1 9.</_></rects>
      <tilted>0</tilted></_>
    <_>
      <rects>
        <_>
          9 10 1 2 -1.</_>
        <_>
          9 11 1 1 2.</_></rects>
      <tilted>0</tilted></_>
    <_>
      <rects>
        <_>
          9 12 3 3 -1.</_>
        <_>
          10 13 1 1 9.</_></rects>
      <tilted>0</tilted></_>
    <_>
      <rects>
        <_>
          10 5 3 1 -1.</_>
        <_>
          11 6 1 1 3.</_></rects>
      <tilted>1</tilted></_>
    <_>
      <rects>
        <_>
          11 13 3 1 -1.</_>
        <_>
          12 13 1 1 3.</_></rects>
      <tilted>0</tilted></_>
    <_>
      <rects>
        <_>
          14 0 6 6 -1.</_>
        <_>
          14 3 6 3 2.</_></rects>
      <tilted>0</tilted></_>
    <_>
      <rects>
        <_>
          14 9 1 3 -1.</_>
        <_>
          14 10 1 1 3.</_></rects>
      <tilted>0</tilted></_>
    <_>
      <rects>
        <_>
          16 1 4 19 -1.</_>
        <_>
          18 1 2 19 2.</_></rects>
      <tilted>0</tilted></_></features></cascade>
</opencv_storage>
