<?xml version="1.0"?>
<opencv_storage>
<cascade>
  <stageType>BOOST</stageType>
  <featureType>HAAR</featureType>
  <height>20</height>
  <width>20</width>
  <stageParams>
    <boostType>GAB</boostType>
    <minHitRate>9.9900001287460327e-01</minHitRate>
    <maxFalseAlarm>5.0000000745058060e-02</maxFalseAlarm>
    <weightTrimRate>9.4999999999999996e-01</weightTrimRate>
    <maxDepth>1</maxDepth>
    <maxWeakCount>100</maxWeakCount></stageParams>
  <featureParams>
    <maxCatCount>0</maxCatCount>
    <featSize>1</featSize>
    <mode>ALL</mode></featureParams>
  <stageNum>3</stageNum>
  <stages>
    <!-- stage 0 -->
    <_>
      <maxWeakCount>7</maxWeakCount>
      <stageThreshold>-3.9784228801727295e-01</stageThreshold>
      <weakClassifiers>
        <_>
          <internalNodes>
            0 -1 14 1.6027409583330154e-02</internalNodes>
          <leafValues>
            -6.7383509874343872e-01 8.5067874193191528e-01</leafValues></_>
        <_>
          <internalNodes>
            0 -1 17 3.7847803905606270e-03</internalNodes>
          <leafValues>
            -5.5289119482040405e-01 9.3242466449737549e-01</leafValues></_>
        <_>
          <internalNodes>
            0 -1 1 1.6126710921525955e-02</internalNodes>
          <leafValues>
            -9.5634680986404419e-01 5.8562767505645752e-01</leafValues></_>
        <_>
          <internalNodes>
            0 -1 9 -1.7484607174992561e-02</internalNodes>
          <leafValues>
            6.2051826715469360e-01 -7.4626493453979492e-01</leafValues></_>
        <_>
          <internalNodes>
            0 -1 10 4.9130381084978580e-03</internalNodes>
          <leafValues>
            -5.1445519924163818e-01 9.1665327548980713e-01</leafValues></_>
        <_>
          <internalNodes>
            0 -1 15 -6.3777714967727661e-03</internalNodes>
          <leafValues>
            9.9391973018646240e-01 -5.0477790832519531e-01</leafValues></_>
        <_>
          <internalNodes>
            0 -1 2 -2.5707702661748044e-05</internalNodes>
          <leafValues>
            -1. 6.4197123050689697e-01</leafValues></_></weakClassifiers></_>
    <!-- stage 1 -->
    <_>
      <maxWeakCount>6</maxWeakCount>
      <stageThreshold>-7.9787388443946838e-02</stageThreshold>
      <weakClassifiers>
        <_>
          <internalNodes>
            0 -1 2 2.1329862647689879e-05</internalNodes>
          <leafValues>
            5.9489631652832031e-01 -1.</leafValues></_>
        <_>
          <internalNodes>
            0 -1 8 4.7521395608782768e-03</internalNodes>
          <leafValues>
            -6.7798995971679688e-01 8.5117655992507935e-01</leafValues></_>
        <_>
          <internalNodes>
            0 -1 7 1.8199380487203598e-02</internalNodes>
          <leafValues>
            -5.6178373098373413e-01 9.4642966985702515e-01</leafValues></_>
        <_>
          <internalNodes>
            0 -1 19 4.7594089992344379e-03</internalNodes>
          <leafValues>
            -9.5367115736007690e-01 5.6683963537216187e-01</leafValues></_>
        <_>
          <internalNodes>
            0 -1 18 -5.1122833974659443e-03</internalNodes>
          <leafValues>
            9.7602397203445435e-01 -4.9173960089683533e-01</leafValues></_>
        <_>
          <internalNodes>
            0 -1 0 1.4782927930355072e-02</internalNodes>
          <leafValues>
            -9.9577581882476807e-01 4.8998999595642090e-01</leafValues></_></weakClassifiers></_>
    <!-- stage 2 -->
    <_>
      <maxWeakCount>8</maxWeakCount>
      <stageThreshold>-3.4508422017097473e-01</stageThreshold>
      <weakClassifiers>
        <_>
          <internalNodes>
            0 -1 11 1.4591440558433533e-02</internalNodes>
          <leafValues>
            -5.9468436241149902e-01 8.9949750900268555e-01</leafValues></_>
        <_>
          <internalNodes>
            0 -1 16 1.9408077001571655e-02</internalNodes>
          <leafValues>
            -5.3818631172180176e-01 9.1457664966583252e-01</leafValues></_>
        <_>
          <internalNodes>
            0 -1 3 3.1409636139869690e-02</internalNodes>
          <leafValues>
            5.7098919153213501e-01 -9.0863883495330811e-01</leafValues></_>
        <_>
          <internalNodes>
            0 -1 13 -3.0331190675497055e-02</internalNodes>
          <leafValues>
            -9.5990717411041260e-01 3.5967803001403809e-01</leafValues></_>
        <_>
          <internalNodes>
            0 -1 4 2.6541884988546371e-02</internalNodes>
          <leafValues>
            3.6704051494598389e-01 -9.6294724941253662e-01</leafValues></_>
        <_>
          <internalNodes>
            0 -1 6 -2.0326761528849602e-02</internalNodes>
          <leafValues>
            9.7132468223571777e-01 -5.2257454395294189e-01</leafValues></_>
        <_>
          <internalNodes>
            0 -1 12 4.4108019210398197e-03</internalNodes>
          <leafValues>
            -5.1328557729721069e-01 9.4901353120803833e-01</leafValues></_>
        <_>
          <internalNodes>
            0 -1 5 -4.7331400215625763e-02</internalNodes>
          <leafValues>
            -9.8630970716476440e-01 5.2593880891799927e-01</leafValues></_></weakClassifiers></_></stages>
  <features>
    <_>
      <rects>
        <_>
          0 0 20 6 -1.</_>
        <_>
          5 0 10 6 2.</_></rects>
      <tilted>0</tilted></_>
    <_>
      <rects>
        <_>
          0 15 20 5 -1.</_>
        <_>
          5 15 10 5 2.</_></rects>
      <tilted>0</tilted></_>
    <_>
      <rects>
        <_>
          0 18 1 2 -1.</_>
        <_>
          0 19 1 1 2.</_></rects>
      <tilted>0</tilted></_>
    <_>
      <rects>
        <_>
          2 3 8 14 -1.</_>
        <_>
          6 3 4 14 2.</_></rects>
      <tilted>0</tilted></_>
    <_>
      <rects>
        <_>
          3 5 15 10 -1.</_>
        <_>
          3 10 15 5 2.</_></rects>
      <tilted>0</tilted></_>
    <_>
      <rects>
        <_>
          4 4 15 12 -1.</_>
        <_>
          4 10 15 6 2.</_></rects>
      <tilted>0</tilted></_>
    <_>
      <rects>
        <_>
          4 7 3 3 -1.</_>
        <_>
          5 8 1 1 9.</_></rects>
      <tilted>0</tilted></_>
    <_>
      <rects>
        <_>
          5 11 3 3 -1.</_>
        <_>
          6 12 1 1 9.</_></rects>
      <tilted>0</tilted></_>
    <_>
      <rects>
        <_>
          7 6 3 1 -1.</_>
        <_>
          8 6 1 1 3.</_></rects>
      <tilted>0</tilted></_>
    <_>
      <rects>
        <_>
          7 9 6 3 -1.</_>
        <_>
          9 10 2 1 9.</_></rects>
      <tilted>0</tilted></_>
    <_>
      <rects>
        <_>
          7 13 3 1 -1.</_>
        <_>
          8 13 1 1 3.</_></rects>
      <tilted>0</tilted></_>
    <_>
      <rects>
        <_>
          8 10 3 3 -1.</_>
        <_>
          9 11 1 1 9.</_></rects>
      <tilted>0</tilted></_>
    <_>
      <rects>
        <_>
          8 12 3 1 -1.</_>
        <_>
          9 12 1 1 3.</_></rects>
      <tilted>0</tilted></_>
    <_>
      <rects>
        <_>
          9 2 8 14 -1.</_>
        <_>
          9 9 8 7 2.</_></rects>
      <tilted>0</tilted></_>
    <_>
      <rects>
        <_>
          9 7 3 3 -1.</_>
        <_>
          10 8 1 1 9.</_></rects>
      <tilted>0</tilted></_>
    <_>
      <rects>
        <_>
          9 13 3 1 -1.</_>
        <_>
          10 13 1 1 3.</_></rects>
      <tilted>0</tilted></_>
    <_>
      <rects>
        <_>
          10 12 3 3 -1.</_>
        <_>
          11 13 1 1 9.</_></rects>
      <tilted>0</tilted></_>
    <_>
      <rects>
        <_>
          11 11 3 1 -1.</_>
        <_>
          12 11 1 1 3.</_></rects>
      <tilted>0</tilted></_>
    <_>
      <rects>
        <_>
          11 13 3 1 -1.</_>
        <_>
          12 13 1 1 3.</_></rects>
      <tilted>0</tilted></_>
    <_>
      <rects>
        <_>
          14 0 6 6 -1.</_>
        <_>
          14 3 6 3 2.</_></rects>
      <tilted>0</tilted></_></features></cascade>
</opencv_storage>
