<?xml version="1.0"?>
<opencv_storage>
<stage0>
  <maxWeakCount>7</maxWeakCount>
  <stageThreshold>-6.2644219398498535e-01</stageThreshold>
  <weakClassifiers>
    <_>
      <internalNodes>
        0 -1 84176 1.4691425487399101e-02</internalNodes>
      <leafValues>
        -7.0902395248413086e-01 8.4245073795318604e-01</leafValues></_>
    <_>
      <internalNodes>
        0 -1 118922 -1.2413442134857178e-02</internalNodes>
      <leafValues>
        6.5077948570251465e-01 -8.5689562559127808e-01</leafValues></_>
    <_>
      <internalNodes>
        0 -1 98819 3.0070929788053036e-03</internalNodes>
      <leafValues>
        -5.9733158349990845e-01 8.8181483745574951e-01</leafValues></_>
    <_>
      <internalNodes>
        0 -1 69940 -1.4070934616029263e-02</internalNodes>
      <leafValues>
        6.2879312038421631e-01 -7.4326980113983154e-01</leafValues></_>
    <_>
      <internalNodes>
        0 -1 424 1.5234354883432388e-02</internalNodes>
      <leafValues>
        -9.5819473266601562e-01 4.4920304417610168e-01</leafValues></_>
    <_>
      <internalNodes>
        0 -1 84171 4.9024885520339012e-03</internalNodes>
      <leafValues>
        -4.8884278535842896e-01 9.6886372566223145e-01</leafValues></_>
    <_>
      <internalNodes>
        0 -1 76353 -1.7138313502073288e-02</internalNodes>
      <leafValues>
        9.9757540225982666e-01 -6.1032831668853760e-01</leafValues></_></weakClassifiers></stage0>
</opencv_storage>
