<?xml version="1.0"?>
<opencv_storage>
<stage0>
  <maxWeakCount>7</maxWeakCount>
  <stageThreshold>-7.0116436481475830e-01</stageThreshold>
  <weakClassifiers>
    <_>
      <internalNodes>
        0 -1 84176 1.3938125222921371e-02</internalNodes>
      <leafValues>
        -6.6486483812332153e-01 8.2921350002288818e-01</leafValues></_>
    <_>
      <internalNodes>
        0 -1 118922 -1.2944772839546204e-02</internalNodes>
      <leafValues>
        6.5999239683151245e-01 -7.9176980257034302e-01</leafValues></_>
    <_>
      <internalNodes>
        0 -1 61276 3.8981870748102665e-03</internalNodes>
      <leafValues>
        -5.7281982898712158e-01 9.2200529575347900e-01</leafValues></_>
    <_>
      <internalNodes>
        0 -1 9444 1.7993506044149399e-02</internalNodes>
      <leafValues>
        -9.4875448942184448e-01 5.1428228616714478e-01</leafValues></_>
    <_>
      <internalNodes>
        0 -1 98 -3.8065962144173682e-05</internalNodes>
      <leafValues>
        -1. 4.2155963182449341e-01</leafValues></_>
    <_>
      <internalNodes>
        0 -1 90029 1.0860983282327652e-02</internalNodes>
      <leafValues>
        -5.7197809219360352e-01 9.7467148303985596e-01</leafValues></_>
    <_>
      <internalNodes>
        0 -1 79244 -1.8232626840472221e-02</internalNodes>
      <leafValues>
        9.9824488162994385e-01 -5.8222323656082153e-01</leafValues></_></weakClassifiers></stage0>
</opencv_storage>
