<?xml version="1.0"?>
<opencv_storage>
<stage2>
  <maxWeakCount>8</maxWeakCount>
  <stageThreshold>-3.4508422017097473e-01</stageThreshold>
  <weakClassifiers>
    <_>
      <internalNodes>
        0 -1 78234 1.4591440558433533e-02</internalNodes>
      <leafValues>
        -5.9468436241149902e-01 8.9949750900268555e-01</leafValues></_>
    <_>
      <internalNodes>
        0 -1 92804 1.9408077001571655e-02</internalNodes>
      <leafValues>
        -5.3818631172180176e-01 9.1457664966583252e-01</leafValues></_>
    <_>
      <internalNodes>
        0 -1 22358 3.1409636139869690e-02</internalNodes>
      <leafValues>
        5.7098919153213501e-01 -9.0863883495330811e-01</leafValues></_>
    <_>
      <internalNodes>
        0 -1 81908 -3.0331190675497055e-02</internalNodes>
      <leafValues>
        -9.5990717411041260e-01 3.5967803001403809e-01</leafValues></_>
    <_>
      <internalNodes>
        0 -1 33511 2.6541884988546371e-02</internalNodes>
      <leafValues>
        3.6704051494598389e-01 -9.6294724941253662e-01</leafValues></_>
    <_>
      <internalNodes>
        0 -1 43354 -2.0326761528849602e-02</internalNodes>
      <leafValues>
        9.7132468223571777e-01 -5.2257454395294189e-01</leafValues></_>
    <_>
      <internalNodes>
        0 -1 78923 4.4108019210398197e-03</internalNodes>
      <leafValues>
        -5.1328557729721069e-01 9.4901353120803833e-01</leafValues></_>
    <_>
      <internalNodes>
        0 -1 42027 -4.7331400215625763e-02</internalNodes>
      <leafValues>
        -9.8630970716476440e-01 5.2593880891799927e-01</leafValues></_></weakClassifiers></stage2>
</opencv_storage>
