<?xml version="1.0"?>
<opencv_storage>
<stage1>
  <maxWeakCount>8</maxWeakCount>
  <stageThreshold>-2.7787664532661438e-01</stageThreshold>
  <weakClassifiers>
    <_>
      <internalNodes>
        0 -1 85394 2.6767980307340622e-03</internalNodes>
      <leafValues>
        -6.3194441795349121e-01 8.5849058628082275e-01</leafValues></_>
    <_>
      <internalNodes>
        0 -1 68325 4.4984538108110428e-03</internalNodes>
      <leafValues>
        -5.1497596502304077e-01 8.6945945024490356e-01</leafValues></_>
    <_>
      <internalNodes>
        0 -1 9240 -6.3141570426523685e-03</internalNodes>
      <leafValues>
        5.5594265460968018e-01 -9.4782859086990356e-01</leafValues></_>
    <_>
      <internalNodes>
        0 -1 98 2.5033372367033735e-05</internalNodes>
      <leafValues>
        3.9532819390296936e-01 -9.6001368761062622e-01</leafValues></_>
    <_>
      <internalNodes>
        0 -1 110819 9.3642380088567734e-03</internalNodes>
      <leafValues>
        -9.1289889812469482e-01 4.9979496002197266e-01</leafValues></_>
    <_>
      <internalNodes>
        0 -1 86004 -2.4612877517938614e-02</internalNodes>
      <leafValues>
        9.9281549453735352e-01 -4.8558592796325684e-01</leafValues></_>
    <_>
      <internalNodes>
        0 -1 113696 6.1424076557159424e-03</internalNodes>
      <leafValues>
        -5.9281718730926514e-01 9.7276306152343750e-01</leafValues></_>
    <_>
      <internalNodes>
        0 -1 73913 3.2820723950862885e-02</internalNodes>
      <leafValues>
        5.5000931024551392e-01 -9.8768299818038940e-01</leafValues></_></weakClassifiers></stage1>
</opencv_storage>
