<?xml version="1.0"?>
<opencv_storage>
<stage2>
  <maxWeakCount>7</maxWeakCount>
  <stageThreshold>3.6999505758285522e-01</stageThreshold>
  <weakClassifiers>
    <_>
      <internalNodes>
        0 -1 9856 2.0565366867231205e-05</internalNodes>
      <leafValues>
        6.2074553966522217e-01 -1.</leafValues></_>
    <_>
      <internalNodes>
        0 -1 53715 -6.1215963214635849e-03</internalNodes>
      <leafValues>
        9.4568377733230591e-01 -6.2039291858673096e-01</leafValues></_>
    <_>
      <internalNodes>
        0 -1 70553 -2.9100619256496429e-02</internalNodes>
      <leafValues>
        -9.4448226690292358e-01 5.3394651412963867e-01</leafValues></_>
    <_>
      <internalNodes>
        0 -1 9739 -3.7141679058549926e-05</internalNodes>
      <leafValues>
        -9.5769292116165161e-01 4.5599770545959473e-01</leafValues></_>
    <_>
      <internalNodes>
        0 -1 93216 4.9540316686034203e-03</internalNodes>
      <leafValues>
        -5.7388466596603394e-01 9.1578412055969238e-01</leafValues></_>
    <_>
      <internalNodes>
        0 -1 24822 1.8673792481422424e-02</internalNodes>
      <leafValues>
        5.3227829933166504e-01 -9.2952001094818115e-01</leafValues></_>
    <_>
      <internalNodes>
        0 -1 70640 -5.1754731684923172e-03</internalNodes>
      <leafValues>
        9.9064433574676514e-01 -5.7869535684585571e-01</leafValues></_></weakClassifiers></stage2>
</opencv_storage>
